langs,fruits,plants,food,vegetables,colors,animals,possession,family,occupation,places,household-items
hi_bn,0.22888352097943426,0.25046300888061523,0.2744065701961517,0.1919956753651301,0.13655575960874558,0.04813737794756889,-0.05480634868144989,0.15094738701979318,0.039403077214956284,0.054573780158534646,0.12036218345165253
hi_ta,0.04995008930563927,0.004589797463268042,-0.03198276413604617,0.055266340263187885,-0.04040742889046669,-0.06812798827886582,-0.15165388509631156,0.105241517846783,0.04254915583878756,-0.08925830910447985,-0.12146022096276284
hi_gu,-0.15075511150062085,-0.1675575241446495,-0.10276490524411201,-0.11881525938709576,-0.12559182196855545,-0.026735945045948027,-0.1800360709428787,0.030643204343505204,0.14736458510160447,0.12757229525595903,-0.24210035502910615
hi_te,0.2380232259631157,0.17948506362736225,0.18560455739498138,0.20725409189860025,0.26745768785476687,0.0951166182756424,0.09770738240331411,-0.027654532498369615,0.010748112201690673,0.07098618423333392,0.1546453580260277
hi_kn,-0.07584701403975487,-0.0641967381699942,-0.0495415449142456,-0.09815886151045561,-0.02574043832719326,0.00909390973392874,-0.035812368243932725,0.16844617870325843,0.13389067128300666,0.04690683260560036,-0.06508101858198642
hi_ml,0.10812654327601194,0.005176249518990516,0.18592810034751892,0.14468303074439368,-0.008476471155881881,0.07232862710952759,0.04919555708765984,-0.02557509485632181,0.04784984290599823,0.16052046604454517,0.1691542774438858
hi_mr,0.0252009442076087,-0.02904028370976448,-0.039574356749653816,-0.043010844577414296,-0.04852927997708321,-0.05037243403494358,0.02240908220410347,0.08830845559714362,0.008541779220104217,-0.022897088434547186,-0.09925195667892694
bn_ta,0.14013001676648856,0.091270312666893,0.19363610446453094,0.18107916476825872,0.13221585471183062,0.10017030239105225,0.11591634079813957,0.15758164483122528,0.114491668343544,0.14476394653320312,0.17226714491844178
bn_gu,-0.007171197491697967,-0.007266543246805668,-0.024550702422857285,-0.032464109167146184,-0.07333779335021973,-0.036984272906556724,0.041535410471260546,0.060702744871377945,-0.0007247086614370346,-0.03438411362003535,-0.0349704310297966
bn_te,0.0619928490370512,0.04723833054304123,0.06420523524284363,0.05409156709598998,0.10163739491254091,0.07309048175811768,-0.01340920925140381,0.036379278637468815,-0.046901007369160655,0.006066868547350168,0.07269285246729851
bn_kn,-0.16718415319919586,-0.1403649628162384,-0.1487702488899231,-0.14109897861878076,-0.1706339031457901,-0.14682749509811402,-0.1172876201570034,-0.135776170839866,-0.09825519174337387,-0.13984439987689257,-0.16193620562553407
bn_ml,0.1080470323562622,0.10067482143640519,0.10385893732309341,0.10283347591757774,0.09434451684355735,0.10609898939728737,0.11884605437517166,0.08879192049304645,0.10033351182937622,0.09967495338059962,0.1120514303445816
bn_mr,0.05835681334137917,0.03282071612775326,0.04891464598476887,0.03601749148219824,0.10932069793343543,0.05430028438568115,0.03518688976764679,0.054366206750273705,0.0600416149944067,0.037772721727378666,0.05127910450100899
ta_gu,0.09016366302967072,0.09613284356892109,0.10278887152671815,0.10109556404252847,0.07157868221402168,0.07714100331068038,0.10625592172145844,0.08407164240876834,0.09533541351556778,0.09859139332547784,0.11431814432144165
ta_te,-0.07649019137024879,-0.053965207934379575,-0.11642398238182068,-0.09584295377135277,-0.08980443738400937,-0.056820477545261386,-0.08999525159597396,-0.07976885077853997,-0.10635028630495072,-0.09312557615339756,-0.1012146607041359
ta_kn,0.3051884829998016,0.2775160789489746,0.2738942623138428,0.2719460502266884,0.3091929733753204,0.2461954116821289,0.3125188171863556,0.27683981011311215,0.30390276312828063,0.2821819446980953,0.2921616405248642
ta_ml,-0.2518428027629852,-0.22659821510314943,-0.23718777000904084,-0.23838825772205988,-0.26558167636394503,-0.24276072084903716,-0.2598607003688812,-0.2537480369210243,-0.2707876473665237,-0.25479880906641483,-0.24321503341197967
ta_mr,-0.07817984186112881,-0.02413391899317503,-0.06940818969160319,-0.07005618574718635,-0.019687934219837187,-0.035645820945501325,-0.03121220264583826,-0.09965084244807561,-0.07391477227210999,-0.07966682559344918,-0.07108670622110366
gu_te,-0.2580376982688904,-0.27188650369644163,-0.25534041225910187,-0.266860028107961,-0.24015833139419557,-0.26622896194458007,-0.2617417246103287,-0.18787193857133389,-0.2671692818403244,-0.24689395911991596,-0.2365322858095169
gu_kn,0.06928819864988327,0.07915255054831505,0.08213834837079048,0.08595852429668109,0.09683177173137665,0.0855461910367012,0.06294111944735051,0.035454513815542064,0.07840679064393044,0.08619026560336351,0.0875597819685936
gu_ml,0.18859793543815612,0.18395864963531494,0.19680822044610977,0.208643967906634,0.21814390122890473,0.15532635524868965,0.1736999958753586,0.07686420576646924,0.18764422833919525,0.18629661202430725,0.2099374055862427
gu_mr,0.12601446956396103,0.12588076144456864,0.10799285396933556,0.16149348889787993,0.09556925743818283,0.15537308603525163,0.09954644590616227,0.05386054748669267,0.16113764941692352,0.14063496934249997,0.12566258516162634
te_kn,-0.09116150587797164,-0.11081983149051666,-0.09408193826675415,-0.09850140412648518,-0.08558708578348159,-0.10006597191095352,-0.11074662655591964,-0.09675196123619874,-0.10492737889289856,-0.08245859481394291,-0.08615163043141365
te_ml,-0.052963542938232425,-0.03357725068926811,-0.049987195432186125,-0.04171701706945896,-0.05264975503087044,-0.028387682512402534,-0.03268319666385651,-0.0464379054804643,-0.04588310122489929,-0.0529222481418401,-0.05599848292768002
te_mr,0.13644213676452638,0.09461564719676971,0.13292298316955567,0.08748291743298371,0.1783715456724167,0.056855404004454616,0.10758218169212341,0.04407830295773844,0.05520445629954338,0.0390943824313581,0.12723810952156783
kn_ml,-0.2303272396326065,-0.23319111764431,-0.22943469882011414,-0.22445851316054663,-0.2270812898874283,-0.21323454082012178,-0.22327576577663422,-0.22098775704701742,-0.2283705472946167,-0.21791784837841988,-0.22729989886283875
kn_mr,-0.017532222252339125,0.02234075255692005,0.006577826663851738,0.011939005926251411,0.037904265150427816,0.05179212093353271,0.040729134902358057,0.06463343277573586,0.058886491879820826,0.010766308347228914,0.02312144939787686
ml_mr,0.1524418920278549,0.16096536219120025,0.1719904884696007,0.17409938325484595,0.05315940678119659,0.1298547588288784,0.09522097632288933,0.15508047491312027,0.1563097208738327,0.15267218729422893,0.14355488121509552
